digraph Tree {
node [shape=box] ;
0 [label="X[0] <= 0.242\nentropy = 0.964\nsamples = 623\nvalue = [381, 242]"] ;
1 [label="X[11] <= 0.463\nentropy = 0.806\nsamples = 215\nvalue = [53, 162]"] ;
0 -> 1 [labeldistance=2.5, labelangle=45, headlabel="True"] ;
2 [label="X[8] <= 0.189\nentropy = 0.349\nsamples = 122\nvalue = [8, 114]"] ;
1 -> 2 ;
3 [label="X[5] <= 43.058\nentropy = 0.176\nsamples = 38\nvalue = [1, 37]"] ;
2 -> 3 ;
4 [label="entropy = 0.0\nsamples = 29\nvalue = [0, 29]"] ;
3 -> 4 ;
5 [label="entropy = 0.503\nsamples = 9\nvalue = [1, 8]"] ;
3 -> 5 ;
6 [label="X[5] <= 27.2\nentropy = 0.414\nsamples = 84\nvalue = [7, 77]"] ;
2 -> 6 ;
7 [label="entropy = 0.579\nsamples = 29\nvalue = [4, 25]"] ;
6 -> 7 ;
8 [label="entropy = 0.305\nsamples = 55\nvalue = [3, 52]"] ;
6 -> 8 ;
9 [label="X[8] <= 0.69\nentropy = 0.999\nsamples = 93\nvalue = [45, 48]"] ;
1 -> 9 ;
10 [label="X[2] <= 3.863\nentropy = 0.8\nsamples = 37\nvalue = [9, 28]"] ;
9 -> 10 ;
11 [label="entropy = 0.764\nsamples = 36\nvalue = [8, 28]"] ;
10 -> 11 ;
12 [label="entropy = 0.0\nsamples = 1\nvalue = [1, 0]"] ;
10 -> 12 ;
13 [label="X[1] <= 2.702\nentropy = 0.94\nsamples = 56\nvalue = [36, 20]"] ;
9 -> 13 ;
14 [label="entropy = 0.987\nsamples = 44\nvalue = [25, 19]"] ;
13 -> 14 ;
15 [label="entropy = 0.414\nsamples = 12\nvalue = [11, 1]"] ;
13 -> 15 ;
16 [label="X[4] <= 0.581\nentropy = 0.714\nsamples = 408\nvalue = [328, 80]"] ;
0 -> 16 [labeldistance=2.5, labelangle=-45, headlabel="False"] ;
17 [label="X[5] <= 30.386\nentropy = 0.971\nsamples = 80\nvalue = [48, 32]"] ;
16 -> 17 ;
18 [label="X[9] <= 0.818\nentropy = 0.971\nsamples = 20\nvalue = [8, 12]"] ;
17 -> 18 ;
19 [label="entropy = 0.0\nsamples = 3\nvalue = [0, 3]"] ;
18 -> 19 ;
20 [label="entropy = 0.998\nsamples = 17\nvalue = [8, 9]"] ;
18 -> 20 ;
21 [label="X[3] <= 335.063\nentropy = 0.918\nsamples = 60\nvalue = [40, 20]"] ;
17 -> 21 ;
22 [label="entropy = 0.894\nsamples = 58\nvalue = [40, 18]"] ;
21 -> 22 ;
23 [label="entropy = 0.0\nsamples = 2\nvalue = [0, 2]"] ;
21 -> 23 ;
24 [label="X[6] <= 0.434\nentropy = 0.601\nsamples = 328\nvalue = [280, 48]"] ;
16 -> 24 ;
25 [label="X[9] <= 0.637\nentropy = 0.563\nsamples = 288\nvalue = [250, 38]"] ;
24 -> 25 ;
26 [label="entropy = 0.536\nsamples = 278\nvalue = [244, 34]"] ;
25 -> 26 ;
27 [label="entropy = 0.971\nsamples = 10\nvalue = [6, 4]"] ;
25 -> 27 ;
28 [label="X[1] <= 0.856\nentropy = 0.811\nsamples = 40\nvalue = [30, 10]"] ;
24 -> 28 ;
29 [label="entropy = 0.746\nsamples = 33\nvalue = [26, 7]"] ;
28 -> 29 ;
30 [label="entropy = 0.985\nsamples = 7\nvalue = [4, 3]"] ;
28 -> 30 ;
}